<?xml version="1.0"?>
<opencv_storage>
<cascade>
  <stageType>BOOST</stageType>
  <featureType>LBP</featureType>
  <height>40</height>
  <width>30</width>
  <stageParams>
    <boostType>GAB</boostType>
    <minHitRate>9.9900001287460327e-01</minHitRate>
    <maxFalseAlarm>4.4999998807907104e-01</maxFalseAlarm>
    <weightTrimRate>9.4999999999999996e-01</weightTrimRate>
    <maxDepth>1</maxDepth>
    <maxWeakCount>100</maxWeakCount></stageParams>
  <featureParams>
    <maxCatCount>256</maxCatCount>
    <featSize>1</featSize></featureParams>
  <stageNum>15</stageNum>
  <stages>
    <!-- stage 0 -->
    <_>
      <maxWeakCount>13</maxWeakCount>
      <stageThreshold>-1.8406087160110474e+00</stageThreshold>
      <weakClassifiers>
        <_>
          <internalNodes>
            0 -1 33 -2101361 -538996817 1431772143 -570446961 -77873489
            109773455 -151258193 1742202687</internalNodes>
          <leafValues>
            -6.9819492101669312e-01 1.4285714924335480e-01</leafValues></_>
        <_>
          <internalNodes>
            0 -1 65 1363398542 2146957010 -1243947570 -986478 1414860286
            1899625125 -134769700 1912078306</internalNodes>
          <leafValues>
            -5.7643890380859375e-01 2.4561354517936707e-01</leafValues></_>
        <_>
          <internalNodes>
            0 -1 223 -244596224 -1869885433 -2141650423 -220208085
            -1831876101 1414778286 -455358133 8626223</internalNodes>
          <leafValues>
            -4.7129699587821960e-01 3.2544001936912537e-01</leafValues></_>
        <_>
          <internalNodes>
            0 -1 30 -835991510 -698941437 545325131 1207731827 134676995
            288506624 541657211 1347898947</internalNodes>
          <leafValues>
            -4.6960842609405518e-01 3.2440045475959778e-01</leafValues></_>
        <_>
          <internalNodes>
            0 -1 29 -496007125 1248558574 -354504754 -1568622982
            -781722303 1702346619 -202393789 -730335393</internalNodes>
          <leafValues>
            -2.7993249893188477e-01 4.8328176140785217e-01</leafValues></_>
        <_>
          <internalNodes>
            0 -1 315 -529629 5176143 1937852962 13106147 -142610622
            315863117 -70912494 -721420801</internalNodes>
          <leafValues>
            -3.8418048620223999e-01 3.7066450715065002e-01</leafValues></_>
        <_>
          <internalNodes>
            0 -1 201 -703864166 1565371907 1082885121 206801767
            -1550515192 1431830531 -1612044610 23020315</internalNodes>
          <leafValues>
            -3.9626127481460571e-01 3.1556266546249390e-01</leafValues></_>
        <_>
          <internalNodes>
            0 -1 47 -134811697 -903103770 -285268958 -823132687
            -138938585 -987299937 -704792777 -675285321</internalNodes>
          <leafValues>
            -3.2009285688400269e-01 4.2549660801887512e-01</leafValues></_>
        <_>
          <internalNodes>
            0 -1 309 -306207998 -1069108305 -1483882480 1491057634
            -22546169 17951393 -2133600700 -704905325</internalNodes>
          <leafValues>
            -3.6636903882026672e-01 3.6676606535911560e-01</leafValues></_>
        <_>
          <internalNodes>
            0 -1 18 -931992869 262780803 -728197929 -1719165123
            -1010514481 1929103849 -1467549441 306659655</internalNodes>
          <leafValues>
            -3.6874938011169434e-01 3.7558394670486450e-01</leafValues></_>
        <_>
          <internalNodes>
            0 -1 67 1648350734 686430036 -923015060 -353976610
            -363121339 1778586373 -1138035987 -512230402</internalNodes>
          <leafValues>
            -4.9512988328933716e-01 2.6561540365219116e-01</leafValues></_>
        <_>
          <internalNodes>
            0 -1 209 -114882045 1007362305 1166755588 1796148771
            -967004550 973959955 -2045539459 1795026543</internalNodes>
          <leafValues>
            -3.9992004632949829e-01 3.3193290233612061e-01</leafValues></_>
        <_>
          <internalNodes>
            0 -1 54 -494932273 648538811 1522944878 581079959 -948092302
            2016568037 -18893770 -649609865</internalNodes>
          <leafValues>
            -3.5678976774215698e-01 3.4283173084259033e-01</leafValues></_></weakClassifiers></_>
    <!-- stage 1 -->
    <_>
      <maxWeakCount>15</maxWeakCount>
      <stageThreshold>-1.8363441228866577e+00</stageThreshold>
      <weakClassifiers>
        <_>
          <internalNodes>
            0 -1 298 -67113181 605289391 1721487649 -268962901
            1809814291 17011135 -604014763 -402653185</internalNodes>
          <leafValues>
            -6.8309587240219116e-01 -3.7000972777605057e-02</leafValues></_>
        <_>
          <internalNodes>
            0 -1 12 -829444574 -577786417 1675695415 -775446617
            768588735 511643419 1759489023 121045799</internalNodes>
          <leafValues>
            -5.4121828079223633e-01 1.9486699998378754e-01</leafValues></_>
        <_>
          <internalNodes>
            0 -1 34 -287118842 -1497434494 -527383310 -1600065658
            -143133899 1064772163 -203036156 -451451097</internalNodes>
          <leafValues>
            -4.7240334749221802e-01 2.7746316790580750e-01</leafValues></_>
        <_>
          <internalNodes>
            0 -1 295 -268447962 1248255950 -500097024 45627082
            1793545239 1117776911 -285227516 -1059201329</internalNodes>
          <leafValues>
            -3.6922335624694824e-01 3.3106312155723572e-01</leafValues></_>
        <_>
          <internalNodes>
            0 -1 43 -957485437 -387463446 -17077978 -1494777757
            1669160291 2084560695 -698520011 -237513641</internalNodes>
          <leafValues>
            -3.1039258837699890e-01 3.7074705958366394e-01</leafValues></_>
        <_>
          <internalNodes>
            0 -1 133 269995436 423272223 -1622156330 1034656620
            1891270045 1073526495 -17835848 -1125385636</internalNodes>
          <leafValues>
            -3.3566832542419434e-01 3.3308202028274536e-01</leafValues></_>
        <_>
          <internalNodes>
            0 -1 77 1447788766 1065309111 2003824744 -1547184634
            2080076715 1893398366 1677342692 1841644036</internalNodes>
          <leafValues>
            -4.3039578199386597e-01 2.4264684319496155e-01</leafValues></_>
        <_>
          <internalNodes>
            0 -1 79 1316313646 712439280 1822140390 1889705215
            1985089355 1515920206 -1077707674 -493733110</internalNodes>
          <leafValues>
            -4.8394349217414856e-01 2.0286858081817627e-01</leafValues></_>
        <_>
          <internalNodes>
            0 -1 262 1569707522 -570768453 1164690195 -88228931
            -925477394 1546431455 1314873831 1083162031</internalNodes>
          <leafValues>
            -3.3978956937789917e-01 2.9277354478836060e-01</leafValues></_>
        <_>
          <internalNodes>
            0 -1 327 -8393837 -1567172949 1023409952 -1929387029
            1954416418 865549676 2011037296 -337119269</internalNodes>
          <leafValues>
            -2.4586580693721771e-01 4.1876730322837830e-01</leafValues></_>
        <_>
          <internalNodes>
            0 -1 150 -215252568 -1860324849 660357122 827566874 67579307
            337198030 862072979 939502507</internalNodes>
          <leafValues>
            -3.4984058141708374e-01 3.0151000618934631e-01</leafValues></_>
        <_>
          <internalNodes>
            0 -1 51 -321394001 1789640543 -318772954 -51417367
            -424194217 1182201663 -965280510 -8554561</internalNodes>
          <leafValues>
            -2.5001639127731323e-01 4.1725146770477295e-01</leafValues></_>
        <_>
          <internalNodes>
            0 -1 161 1344135765 791870243 -170979555 495105577
            2122305003 2126945946 1185800429 68666978</internalNodes>
          <leafValues>
            -3.7991762161254883e-01 2.7633717656135559e-01</leafValues></_>
        <_>
          <internalNodes>
            0 -1 15 1613482114 996000110 1623376590 1810021126
            -876618842 2146883893 -1082202132 -127664190</internalNodes>
          <leafValues>
            -3.5455113649368286e-01 2.9075920581817627e-01</leafValues></_>
        <_>
          <internalNodes>
            0 -1 313 -170923005 13532789 -1298437629 1079636931
            -86699152 134673953 1941386820 1357116743</internalNodes>
          <leafValues>
            -3.6484763026237488e-01 2.8111350536346436e-01</leafValues></_></weakClassifiers></_>
    <!-- stage 2 -->
    <_>
      <maxWeakCount>18</maxWeakCount>
      <stageThreshold>-1.9348810911178589e+00</stageThreshold>
      <weakClassifiers>
        <_>
          <internalNodes>
            0 -1 4 -18886961 -10486001 -34275953 -135269025 -524289
            -2105003 -171180049 -145491089</internalNodes>
          <leafValues>
            -6.2122720479965210e-01 1.0016420483589172e-01</leafValues></_>
        <_>
          <internalNodes>
            0 -1 284 -575670368 -677512451 -1821910287 -637535237
            -25486081 -521246070 -393225491 -1058014753</internalNodes>
          <leafValues>
            -3.2980808615684509e-01 3.4369412064552307e-01</leafValues></_>
        <_>
          <internalNodes>
            0 -1 27 1216005034 1401548497 2086547387 2142329139
            116198559 -1100652611 -902838017 1683441219</internalNodes>
          <leafValues>
            -4.1660827398300171e-01 2.4866303801536560e-01</leafValues></_>
        <_>
          <internalNodes>
            0 -1 24 -427842834 -545813365 649332262 734508375
            -1082678577 1648599107 5221519 1769440803</internalNodes>
          <leafValues>
            -3.1656962633132935e-01 3.0495578050613403e-01</leafValues></_>
        <_>
          <internalNodes>
            0 -1 147 1577543431 1597974035 461539910 935318925
            1880603603 -1776709497 -390108519 540014759</internalNodes>
          <leafValues>
            -3.0293601751327515e-01 3.1212237477302551e-01</leafValues></_>
        <_>
          <internalNodes>
            0 -1 324 -234885341 -890509315 -278991762 -386859434
            -1111595746 1635710811 -41960107 -140513321</internalNodes>
          <leafValues>
            -2.7360203862190247e-01 3.5596385598182678e-01</leafValues></_>
        <_>
          <internalNodes>
            0 -1 37 -353374677 -1365032981 -419775578 -1573293948
            -940108940 125005684 -596118270 -1049100841</internalNodes>
          <leafValues>
            -2.7721637487411499e-01 3.1755000352859497e-01</leafValues></_>
        <_>
          <internalNodes>
            0 -1 217 -740432342 1368359889 648292354 19743271 1516503731
            -1626922189 -2019357782 241417467</internalNodes>
          <leafValues>
            -3.4145534038543701e-01 2.9003822803497314e-01</leafValues></_>
        <_>
          <internalNodes>
            0 -1 57 -966800881 -957615284 1284278938 586709701
            2009751379 1930398775 -42140490 -465047689</internalNodes>
          <leafValues>
            -3.6561134457588196e-01 2.4524700641632080e-01</leafValues></_>
        <_>
          <internalNodes>
            0 -1 11 1560601298 2077921915 -459279482 -1618373546
            126608831 500793355 1273970172 1718796728</internalNodes>
          <leafValues>
            -3.6543354392051697e-01 2.5654649734497070e-01</leafValues></_>
        <_>
          <internalNodes>
            0 -1 310 -1951664511 -2021261400 1305575200 -792499713
            -1413743855 -963913441 -1859503849 -749735455</internalNodes>
          <leafValues>
            -3.0932417511940002e-01 2.9417583346366882e-01</leafValues></_>
        <_>
          <internalNodes>
            0 -1 170 -374496254 -807274866 640112898 1370488566
            -169875765 1174458197 -168430644 -169353782</internalNodes>
          <leafValues>
            -2.7608510851860046e-01 3.4398609399795532e-01</leafValues></_>
        <_>
          <internalNodes>
            0 -1 248 -2055733263 918482746 1067411831 -38473224
            1034829304 802058172 -637673556 -1650459204</internalNodes>
          <leafValues>
            -2.7007195353507996e-01 3.4705021977424622e-01</leafValues></_>
        <_>
          <internalNodes>
            0 -1 48 -352584949 16491075 -506081150 -829109594 1297073975
            1634813085 1994814209 -974921291</internalNodes>
          <leafValues>
            -3.1382238864898682e-01 3.0587267875671387e-01</leafValues></_>
        <_>
          <internalNodes>
            0 -1 129 1216791936 322328614 -640292432 386911112 747373217
            31815833 1264832169 564546954</internalNodes>
          <leafValues>
            -4.4486111402511597e-01 2.1712777018547058e-01</leafValues></_>
        <_>
          <internalNodes>
            0 -1 146 1560658953 488895941 661293203 -1649365876
            1261399551 968739148 -711016168 5486762</internalNodes>
          <leafValues>
            -4.1194924712181091e-01 2.1941150724887848e-01</leafValues></_>
        <_>
          <internalNodes>
            0 -1 64 777683503 -583796617 886127076 -799352119
            -1960023201 1983361569 390847999 1937210239</internalNodes>
          <leafValues>
            -3.3855625987052917e-01 2.8381049633026123e-01</leafValues></_>
        <_>
          <internalNodes>
            0 -1 137 1145538570 350060980 1413311504 1575440246
            2002668451 745806080 2068786026 1993445958</internalNodes>
          <leafValues>
            -4.4762969017028809e-01 2.0846736431121826e-01</leafValues></_></weakClassifiers></_>
    <!-- stage 3 -->
    <_>
      <maxWeakCount>21</maxWeakCount>
      <stageThreshold>-1.6196850538253784e+00</stageThreshold>
      <weakClassifiers>
        <_>
          <internalNodes>
            0 -1 66 1985138687 -14811137 -858657 -2842626 1399484159
            -7681 -294913 -2790206</internalNodes>
          <leafValues>
            -6.4608293771743774e-01 -6.5277017652988434e-02</leafValues></_>
        <_>
          <internalNodes>
            0 -1 8 -1033190678 2145606805 -1386901766 -134745089
            -424702746 -1154594573 -1345993585 1429684338</internalNodes>
          <leafValues>
            -4.3252515792846680e-01 1.6280542314052582e-01</leafValues></_>
        <_>
          <internalNodes>
            0 -1 224 -10625278 1540162870 658911522 1001596721
            -870806615 606111895 -589518301 7728811</internalNodes>
          <leafValues>
            -3.7800371646881104e-01 2.2304372489452362e-01</leafValues></_>
        <_>
          <internalNodes>
            0 -1 44 -383006037 -936463126 -486558174 -829819926
            -143136906 1652477557 1194849815 -202375241</internalNodes>
          <leafValues>
            -2.4217997491359711e-01 3.3734944462776184e-01</leafValues></_>
        <_>
          <internalNodes>
            0 -1 283 -1895563390 -67124041 -276826251 -105921085
            1877995263 1793355438 -1879050247 -1060125267</internalNodes>
          <leafValues>
            -2.3259223997592926e-01 3.4102216362953186e-01</leafValues></_>
        <_>
          <internalNodes>
            0 -1 19 -1228158962 -163880127 241084390 -215098436
            -1100516001 -428469744 -18385601 -165610545</internalNodes>
          <leafValues>
            -2.9186344146728516e-01 2.7990397810935974e-01</leafValues></_>
        <_>
          <internalNodes>
            0 -1 89 1856998015 -1173167497 -2104353813 370421562
            -363968178 -299875278 -336107681 -630008198</internalNodes>
          <leafValues>
            -3.0021506547927856e-01 2.7307516336441040e-01</leafValues></_>
        <_>
          <internalNodes>
            0 -1 94 1578689798 951316127 -1978200752 -338556790
            394072218 2075734779 2144625564 129434186</internalNodes>
          <leafValues>
            -4.0091890096664429e-01 1.9459906220436096e-01</leafValues></_>
        <_>
          <internalNodes>
            0 -1 239 622091605 -1726939400 1073626069 -1107381060
            -1346386760 -809566209 -1359675907 -6683460</internalNodes>
          <leafValues>
            -2.5697198510169983e-01 3.2239165902137756e-01</leafValues></_>
        <_>
          <internalNodes>
            0 -1 84 -1983533056 -571745017 -2054942157 1315333463
            -656818691 1830668825 -1415824272 544125551</internalNodes>
          <leafValues>
            -4.4636058807373047e-01 1.7416207492351532e-01</leafValues></_>
        <_>
          <internalNodes>
            0 -1 151 1570867754 -1694161382 886048552 94186849
            -1161224570 770263758 252778047 1337811931</internalNodes>
          <leafValues>
            -3.4782850742340088e-01 2.3787868022918701e-01</leafValues></_>
        <_>
          <internalNodes>
            0 -1 208 1167547680 715220753 -1655276718 -710722601
            1359494895 -2006023899 1895641948 -1604584706</internalNodes>
          <leafValues>
            -3.5571369528770447e-01 2.2657480835914612e-01</leafValues></_>
        <_>
          <internalNodes>
            0 -1 296 611297538 14719912 -2052911871 116433584 1133736449
            111345920 42928976 3014419</internalNodes>
          <leafValues>
            -6.2636393308639526e-01 1.2552928924560547e-01</leafValues></_>
        <_>
          <internalNodes>
            0 -1 245 -699663672 1493854097 -199252551 1463358899
            1631192541 754741479 -301863026 1710711774</internalNodes>
          <leafValues>
            -2.9862242937088013e-01 2.7172496914863586e-01</leafValues></_>
        <_>
          <internalNodes>
            0 -1 68 215378667 1063255305 -268227100 1793088499
            1107630887 1987950069 -712025619 1625386848</internalNodes>
          <leafValues>
            -4.3128076195716858e-01 1.8776489794254303e-01</leafValues></_>
        <_>
          <internalNodes>
            0 -1 73 530710411 530901959 -1497651232 -682578951
            1142850475 -92815449 23405310 -472390574</internalNodes>
          <leafValues>
            -2.4441751837730408e-01 3.4151002764701843e-01</leafValues></_>
        <_>
          <internalNodes>
            0 -1 63 1182788127 -16883033 -1368207954 -127732993
            2112179999 1609979732 1021799519 -18415617</internalNodes>
          <leafValues>
            -2.4972282350063324e-01 3.3340868353843689e-01</leafValues></_>
        <_>
          <internalNodes>
            0 -1 202 -68163062 -890311197 868319236 -1429734162
            -1881484534 1406820652 -215256336 -211431058</internalNodes>
          <leafValues>
            -3.0512833595275879e-01 2.7188622951507568e-01</leafValues></_>
        <_>
          <internalNodes>
            0 -1 144 281847428 -1099096588 -924846922 -1075121713
            2035089661 -7490823 -1315332640 1954949764</internalNodes>
          <leafValues>
            -4.4647857546806335e-01 1.9288986921310425e-01</leafValues></_>
        <_>
          <internalNodes>
            0 -1 175 2073097942 2144148316 336069492 -1084423986
            1088196354 1520112048 -522623389 811442558</internalNodes>
          <leafValues>
            -3.4055566787719727e-01 2.4514047801494598e-01</leafValues></_>
        <_>
          <internalNodes>
            0 -1 321 -679487965 1714421102 -285227421 -387199255
            1072283479 1742142590 -570951840 -976880217</internalNodes>
          <leafValues>
            -2.4875082075595856e-01 3.5009318590164185e-01</leafValues></_></weakClassifiers></_>
    <!-- stage 4 -->
    <_>
      <maxWeakCount>20</maxWeakCount>
      <stageThreshold>-1.4934198856353760e+00</stageThreshold>
      <weakClassifiers>
        <_>
          <internalNodes>
            0 -1 105 -8424881 1967612287 -699361491 -746889897 -6117264
            -838180604 -211306017 -13435521</internalNodes>
          <leafValues>
            -6.5243065357208252e-01 -1.4259344339370728e-01</leafValues></_>
        <_>
          <internalNodes>
            0 -1 312 -606090997 109047195 -302390648 -84151697
            1778362115 620686286 -671638784 -1058537553</internalNodes>
          <leafValues>
            -3.3284345269203186e-01 2.4651478230953217e-01</leafValues></_>
        <_>
          <internalNodes>
            0 -1 287 -1347552889 -1062301715 -302026971 -138552422
            -1393577985 -437588042 -975183619 -913318403</internalNodes>
          <leafValues>
            -2.2475878894329071e-01 3.4984394907951355e-01</leafValues></_>
        <_>
          <internalNodes>
            0 -1 60 -35674714 -894451770 -49132510 -1024459836
            2118497063 1983228773 1998239559 381679611</internalNodes>
          <leafValues>
            -3.3719444274902344e-01 2.1723893284797668e-01</leafValues></_>
        <_>
          <internalNodes>
            0 -1 116 2115089408 1062812919 -610775957 1565757220
            1865931001 1014774775 768592556 134544558</internalNodes>
          <leafValues>
            -3.6709007620811462e-01 2.3084887862205505e-01</leafValues></_>
        <_>
          <internalNodes>
            0 -1 21 -932991057 -521216242 -357568788 -366085141
            1156838151 1098202887 -672137457 -170412049</internalNodes>
          <leafValues>
            -2.1594345569610596e-01 3.5441091656684875e-01</leafValues></_>
        <_>
          <internalNodes>
            0 -1 31 -394804665 -1622682847 114984474 -551925322
            -1901614873 1557734144 720863327 1815298627</internalNodes>
          <leafValues>
            -3.1992429494857788e-01 2.4143743515014648e-01</leafValues></_>
        <_>
          <internalNodes>
            0 -1 143 1549678685 -564526209 -1786323909 796409124
            -556901416 2040023896 -69837092 -295163342</internalNodes>
          <leafValues>
            -2.9268777370452881e-01 2.6902267336845398e-01</leafValues></_>
        <_>
          <internalNodes>
            0 -1 172 -671094101 -279975201 -1409405436 -85083650
            -1493189654 5662631 1476384683 -134765874</internalNodes>
          <leafValues>
            -1.8533377349376678e-01 4.1571709513664246e-01</leafValues></_>
        <_>
          <internalNodes>
            0 -1 225 -568213248 1958620418 1992165904 -1692259030
            304597149 -1937405992 -453481814 671869643</internalNodes>
          <leafValues>
            -3.9296245574951172e-01 2.0336255431175232e-01</leafValues></_>
        <_>
          <internalNodes>
            0 -1 304 2067521315 586653437 -595902685 -35918857 178738593
            -1913129005 1557026391 -610279713</internalNodes>
          <leafValues>
            -2.4383130669593811e-01 3.3689919114112854e-01</leafValues></_>
        <_>
          <internalNodes>
            0 -1 86 -662709310 1913827424 -1068033 -1750288597 179241364
            221185951 115543103 -406853670</internalNodes>
          <leafValues>
            -2.5265765190124512e-01 3.0547222495079041e-01</leafValues></_>
        <_>
          <internalNodes>
            0 -1 228 -375135733 -98058582 1124068898 -780435830
            -1211116254 325549766 1400233302 -211353954</internalNodes>
          <leafValues>
            -2.6313871145248413e-01 2.9660943150520325e-01</leafValues></_>
        <_>
          <internalNodes>
            0 -1 311 -855928149 -1300496661 870786848 1081064830
            -1763967011 546038381 -214976683 1356854939</internalNodes>
          <leafValues>
            -2.9199865460395813e-01 2.6075953245162964e-01</leafValues></_>
        <_>
          <internalNodes>
            0 -1 134 2084962304 -1470385238 -974996129 1039674172
            -313776136 754446233 1603665913 1117784064</internalNodes>
          <leafValues>
            -4.9794769287109375e-01 1.5561236441135406e-01</leafValues></_>
        <_>
          <internalNodes>
            0 -1 237 973139889 -1347631622 666385000 725144824
            1811663072 -1935066392 1514734056 -305268492</internalNodes>
          <leafValues>
            -3.2822310924530029e-01 2.2571869194507599e-01</leafValues></_>
        <_>
          <internalNodes>
            0 -1 3 -927338994 954956830 -1406011330 -1199310417
            -784010021 2133754647 -1254523013 -801572753</internalNodes>
          <leafValues>
            -2.8804004192352295e-01 2.6929366588592529e-01</leafValues></_>
        <_>
          <internalNodes>
            0 -1 55 1794827887 -164251542 -1738482356 -1037140983
            1985503831 1719730967 997653464 -1085885859</internalNodes>
          <leafValues>
            -3.2276949286460876e-01 2.5055503845214844e-01</leafValues></_>
        <_>
          <internalNodes>
            0 -1 125 -1353205198 -1513094062 -717389416 -1849455010
            34654360 1019705349 270353146 1544383199</internalNodes>
          <leafValues>
            -3.6559560894966125e-01 2.1146444976329803e-01</leafValues></_>
        <_>
          <internalNodes>
            0 -1 278 253830437 247660001 -1659667742 -1650697420
            567763319 -1281310065 -845153819 231063956</internalNodes>
          <leafValues>
            -4.1533944010734558e-01 1.9029492139816284e-01</leafValues></_></weakClassifiers></_>
    <!-- stage 5 -->
    <_>
      <maxWeakCount>22</maxWeakCount>
      <stageThreshold>-1.5195027589797974e+00</stageThreshold>
      <weakClassifiers>
        <_>
          <internalNodes>
            0 -1 90 -142647985 -23347585 -313335873 -545259521
            -106955537 -19149946 -5243905 -77402257</internalNodes>
          <leafValues>
            -6.3092631101608276e-01 -9.2970520257949829e-02</leafValues></_>
        <_>
          <internalNodes>
            0 -1 1 -285438257 -1707136433 -558646292 -237045249
            -507522065 -690918333 2010544461 -143433405</internalNodes>
          <leafValues>
            -2.9768010973930359e-01 2.3597611486911774e-01</leafValues></_>
        <_>
          <internalNodes>
            0 -1 206 235412572 2119978556 -1636246027 -1153674760
            1316500112 -810543644 -1345320979 -1205859020</internalNodes>
          <leafValues>
            -3.6864876747131348e-01 1.7387883365154266e-01</leafValues></_>
        <_>
          <internalNodes>
            0 -1 52 -165974289 40657582 -431452562 -1428952337
            1416832035 910247747 2145612359 1941390295</internalNodes>
          <leafValues>
            -3.6412447690963745e-01 1.7933480441570282e-01</leafValues></_>
        <_>
          <internalNodes>
            0 -1 222 1074711456 461272976 -302032587 2140123476
            1402892031 -663453802 -1645486229 1075928281</internalNodes>
          <leafValues>
            -3.1886938214302063e-01 2.3237487673759460e-01</leafValues></_>
        <_>
          <internalNodes>
            0 -1 98 -590268414 908486701 1163108144 -170192386
            1353672139 1642016601 -2104808520 1084065292</internalNodes>
          <leafValues>
            -4.2464229464530945e-01 1.7064109444618225e-01</leafValues></_>
        <_>
          <internalNodes>
            0 -1 180 -277535166 1042743815 660577195 1274356563
            -1468987881 641549499 -936987902 1142939602</internalNodes>
          <leafValues>
            -3.7632089853286743e-01 1.7710453271865845e-01</leafValues></_>
        <_>
          <internalNodes>
            0 -1 9 1121980066 1072163699 -1202651703 936556407 284774293
            -402846817 -388669443 87184466</internalNodes>
          <leafValues>
            -4.2370781302452087e-01 1.6452485322952271e-01</leafValues></_>
        <_>
          <internalNodes>
            0 -1 314 -6621 15684521 -526666964 -1966084472 -68537535
            1099517811 -210807936 -795607745</internalNodes>
          <leafValues>
            -3.4406602382659912e-01 2.0217536389827728e-01</leafValues></_>
        <_>
          <internalNodes>
            0 -1 136 1147644434 -1160805538 81099632 968806517
            1802963883 -1637201757 -1456489158 322803962</internalNodes>
          <leafValues>
            -3.4585636854171753e-01 1.9894236326217651e-01</leafValues></_>
        <_>
          <internalNodes>
            0 -1 23 -419312998 242462049 -1479030618 1315873123
            -1177682188 -1291697497 1081780354 1663550822</internalNodes>
          <leafValues>
            -3.2513761520385742e-01 2.1349032223224640e-01</leafValues></_>
        <_>
          <internalNodes>
            0 -1 25 -90640977 -1430096515 -14052641 1422037114
            1375996543 -1082529713 -876953878 -447269843</internalNodes>
          <leafValues>
            -2.7494385838508606e-01 2.4768894910812378e-01</leafValues></_>
        <_>
          <internalNodes>
            0 -1 257 -235961397 -144462101 944393290 -739676428
            -763587858 1395991900 -305203746 -142870561</internalNodes>
          <leafValues>
            -1.6050243377685547e-01 4.4749432802200317e-01</leafValues></_>
        <_>
          <internalNodes>
            0 -1 260 -1889536477 572143384 -425067342 -525608505
            467661828 -2130742278 667931460 83726334</internalNodes>
          <leafValues>
            -4.4312244653701782e-01 1.6477029025554657e-01</leafValues></_>
        <_>
          <internalNodes>
            0 -1 149 1418256832 991215265 1890586361 1829424369
            -675164441 1128016430 1001237084 1715836826</internalNodes>
          <leafValues>
            -3.4418022632598877e-01 2.0320098102092743e-01</leafValues></_>
        <_>
          <internalNodes>
            0 -1 238 238164369 -1882041912 1937302393 -1075571236
            798767837 -1173192263 1731615709 -1349901164</internalNodes>
          <leafValues>
            -2.9494053125381470e-01 2.4216757714748383e-01</leafValues></_>
        <_>
          <internalNodes>
            0 -1 227 -739250681 1452244764 -185678464 -222707746
            531545951 1295744818 -218759918 -134742594</internalNodes>
          <leafValues>
            -2.4944001436233521e-01 3.0862116813659668e-01</leafValues></_>
        <_>
          <internalNodes>
            0 -1 123 1351148096 183728296 -1579554095 2069518392
            1511359663 -302367167 287905434 1613193359</internalNodes>
          <leafValues>
            -3.6992660164833069e-01 2.0999947190284729e-01</leafValues></_>
        <_>
          <internalNodes>
            0 -1 179 1687786688 674434899 -183722566 -558702704
            1583910573 -1125491147 512040764 707907633</internalNodes>
          <leafValues>
            -4.0715286135673523e-01 1.7515027523040771e-01</leafValues></_>
        <_>
          <internalNodes>
            0 -1 326 1610479107 216793071 -5263596 711946158 -704815321
            -1520501377 -1493183024 -2065193489</internalNodes>
          <leafValues>
            -2.6165372133255005e-01 2.8037011623382568e-01</leafValues></_>
        <_>
          <internalNodes>
            0 -1 102 -18878824 -1642287988 1201668757 2078220907
            -254654630 -18194222 2068015718 2054847087</internalNodes>
          <leafValues>
            -2.8953692317008972e-01 2.6082888245582581e-01</leafValues></_>
        <_>
          <internalNodes>
            0 -1 210 -321938902 1695284794 1949721362 818933347
            1398504066 1131798458 900120350 -673981715</internalNodes>
          <leafValues>
            -2.4871930480003357e-01 2.9802748560905457e-01</leafValues></_></weakClassifiers></_>
    <!-- stage 6 -->
    <_>
      <maxWeakCount>23</maxWeakCount>
      <stageThreshold>-1.4971809387207031e+00</stageThreshold>
      <weakClassifiers>
        <_>
          <internalNodes>
            0 -1 96 -67118465 -41217 2055395295 -202409985 -72158670
            -272896410 -8194 -75759905</internalNodes>
          <leafValues>
            -5.9532946348190308e-01 -4.3894652277231216e-02</leafValues></_>
        <_>
          <internalNodes>
            0 -1 120 1942124471 -4784201 -67142757 -1037314 2008310007
            -335634467 -596985377 -886246</internalNodes>
          <leafValues>
            -2.6767817139625549e-01 2.8042906522750854e-01</leafValues></_>
        <_>
          <internalNodes>
            0 -1 290 1748856673 -1951448754 -1378659542 -472122374
            1932187467 105834995 934794529 2006512058</internalNodes>
          <leafValues>
            -3.6449840664863586e-01 1.8227301537990570e-01</leafValues></_>
        <_>
          <internalNodes>
            0 -1 40 -348142577 -1397497170 -1366361426 -357947742
            1912434534 1632466209 -160172525 -423364617</internalNodes>
          <leafValues>
            -3.2831114530563354e-01 1.9236423075199127e-01</leafValues></_>
        <_>
          <internalNodes>
            0 -1 99 -1591303510 -1698696196 570351357 390402930 76613034
            -1355923002 773031466 1126135779</internalNodes>
          <leafValues>
            -3.1608241796493530e-01 2.2376339137554169e-01</leafValues></_>
        <_>
          <internalNodes>
            0 -1 194 951612913 -3252772 -1718446849 2110416212 -25123620
            -1881583323 -136558343 -1684535880</internalNodes>
          <leafValues>
            -2.5607207417488098e-01 2.6624929904937744e-01</leafValues></_>
        <_>
          <internalNodes>
            0 -1 261 212564896 -638919191 -540149815 -874659640
            -1623990793 -277640533 -824836147 73650528</internalNodes>
          <leafValues>
            -3.2164555788040161e-01 2.1776652336120605e-01</leafValues></_>
        <_>
          <internalNodes>
            0 -1 275 1197994785 -1895471755 -981790447 252646252
            292099216 -1357167428 1031626357 -950044684</internalNodes>
          <leafValues>
            -3.0007967352867126e-01 2.2651188075542450e-01</leafValues></_>
        <_>
          <internalNodes>
            0 -1 301 -285768184 -1067051380 123154181 1317080532
            -523504876 -2111903052 1093629075 -712273527</internalNodes>
          <leafValues>
            -2.9799893498420715e-01 2.2727023065090179e-01</leafValues></_>
        <_>
          <internalNodes>
            0 -1 32 1618390437 948159918 -1231619397 557576107
            -1443445555 2145365485 -337523080 104035682</internalNodes>
          <leafValues>
            -3.2486352324485779e-01 2.0291884243488312e-01</leafValues></_>
        <_>
          <internalNodes>
            0 -1 76 645530703 -1436567654 -1295718483 1014148815
            -205831092 -667842265 -1393689634 1979890238</internalNodes>
          <leafValues>
            -3.5602122545242310e-01 1.8837329745292664e-01</leafValues></_>
        <_>
          <internalNodes>
            0 -1 288 1321232128 -2050565910 -421927832 -1005659908
            1879507026 107453420 9336305 1416581319</internalNodes>
          <leafValues>
            -5.1542967557907104e-01 1.1997999995946884e-01</leafValues></_>
        <_>
          <internalNodes>
            0 -1 328 -815299817 -1535521192 -714915824 1109195436
            906061123 63251655 -937405628 -825432599</internalNodes>
          <leafValues>
            -2.8087824583053589e-01 2.4070014059543610e-01</leafValues></_>
        <_>
          <internalNodes>
            0 -1 235 -1037663600 1427081744 583232283 1231651079
            1200032010 -1634011198 333564442 506333671</internalNodes>
          <leafValues>
            -3.5796451568603516e-01 1.9811443984508514e-01</leafValues></_>
        <_>
          <internalNodes>
            0 -1 272 -2073453392 962575809 1990268068 392883282
            -1870292279 -1380325134 83304440 565166986</internalNodes>
          <leafValues>
            -3.3736178278923035e-01 2.0511883497238159e-01</leafValues></_>
        <_>
          <internalNodes>
            0 -1 106 -543242184 -318887848 -1438094597 812329653
            -558635263 -126126063 1996194064 -652280246</internalNodes>
          <leafValues>
            -3.2334765791893005e-01 2.3219726979732513e-01</leafValues></_>
        <_>
          <internalNodes>
            0 -1 128 36514356 1827759703 751576037 2143081750 1195855269
            979737923 -1486607734 73705540</internalNodes>
          <leafValues>
            -5.3756451606750488e-01 1.2846024334430695e-01</leafValues></_>
        <_>
          <internalNodes>
            0 -1 254 1317504384 1950377522 -917478525 287838226
            135945451 2140558415 -2003785024 1877179050</internalNodes>
          <leafValues>
            -3.5413405299186707e-01 2.0306435227394104e-01</leafValues></_>
        <_>
          <internalNodes>
            0 -1 192 -995099856 41496821 -1920995803 -1664383203
            1374386690 680167918 -104083104 -1979763731</internalNodes>
          <leafValues>
            -3.7135052680969238e-01 1.9808273017406464e-01</leafValues></_>
        <_>
          <internalNodes>
            0 -1 169 -71316822 -336986438 -1280355680 -1234174013
            2137520042 1616836453 -1208066340 -694161713</internalNodes>
          <leafValues>
            -2.3127573728561401e-01 3.3220243453979492e-01</leafValues></_>
        <_>
          <internalNodes>
            0 -1 165 -1832850578 -1391395163 -2107276104 -177511330
            -1790377951 1884295404 -223426622 624246915</internalNodes>
          <leafValues>
            -3.5812148451805115e-01 2.1479728817939758e-01</leafValues></_>
        <_>
          <internalNodes>
            0 -1 41 1129301602 799064403 737816214 -453067610 1831336883
            527532375 1089286880 581973366</internalNodes>
          <leafValues>
            -4.5726004242897034e-01 1.5250019729137421e-01</leafValues></_>
        <_>
          <internalNodes>
            0 -1 131 1222463063 1945065853 -1790781193 1557182520
            -1509010342 374951753 -557474470 -1368383968</internalNodes>
          <leafValues>
            -3.2478863000869751e-01 2.2841478884220123e-01</leafValues></_></weakClassifiers></_>
    <!-- stage 7 -->
    <_>
      <maxWeakCount>23</maxWeakCount>
      <stageThreshold>-1.5380673408508301e+00</stageThreshold>
      <weakClassifiers>
        <_>
          <internalNodes>
            0 -1 196 491273653 -1152560673 -13772929 -1082870945
            -1074464801 -4543829 -67244807 -1141069256</internalNodes>
          <leafValues>
            -6.5249538421630859e-01 -1.8789407610893250e-01</leafValues></_>
        <_>
          <internalNodes>
            0 -1 178 -1639185291 531391429 -1743086209 -1080546120
            -1950335908 -42446770 -338538758 -1100989260</internalNodes>
          <leafValues>
            -3.7413766980171204e-01 1.5458853542804718e-01</leafValues></_>
        <_>
          <internalNodes>
            0 -1 119 -75824041 -571474169 1073332094 -134783395
            -1075661584 -44081615 -8618102 -81593825</internalNodes>
          <leafValues>
            -2.1197208762168884e-01 3.3197954297065735e-01</leafValues></_>
        <_>
          <internalNodes>
            0 -1 277 487391248 -1968235728 958070129 517660116
            -1373683840 -1415689724 294745552 -845376304</internalNodes>
          <leafValues>
            -3.7383759021759033e-01 1.8240357935428619e-01</leafValues></_>
        <_>
          <internalNodes>
            0 -1 285 2123347458 -613537281 805125751 -234992433
            -620765452 -396599558 -856329637 -1063789177</internalNodes>
          <leafValues>
            -2.3070110380649567e-01 3.0303040146827698e-01</leafValues></_>
        <_>
          <internalNodes>
            0 -1 231 -272645495 -1709470021 -1577123262 -531628337
            -281053393 1143177024 -151062567 -207104554</internalNodes>
          <leafValues>
            -2.3344370722770691e-01 3.0033242702484131e-01</leafValues></_>
        <_>
          <internalNodes>
            0 -1 36 -1361073481 1455287013 -1409384655 1710602571
            216932782 -272763225 -385885857 -33744601</internalNodes>
          <leafValues>
            -2.1588210761547089e-01 3.1561341881752014e-01</leafValues></_>
        <_>
          <internalNodes>
            0 -1 58 -822123921 576425669 -53677340 645966422 977210948
            1594444628 1360180310 -972788890</internalNodes>
          <leafValues>
            -4.3407419323921204e-01 1.5769287943840027e-01</leafValues></_>
        <_>
          <internalNodes>
            0 -1 234 1329891548 1549455382 1539655759 1969218593
            486541278 487059000 2112504266 800566139</internalNodes>
          <leafValues>
            -3.0781528353691101e-01 2.3141801357269287e-01</leafValues></_>
        <_>
          <internalNodes>
            0 -1 14 -703968242 -383118777 715832761 1832075303
            -262178417 -83402122 1413412536 -1337547682</internalNodes>
          <leafValues>
            -3.1047087907791138e-01 2.3291155695915222e-01</leafValues></_>
        <_>
          <internalNodes>
            0 -1 111 67537148 428879836 868019069 2132097712 -913943931
            1048578962 -1201379894 695419426</internalNodes>
          <leafValues>
            -3.7140208482742310e-01 1.9516205787658691e-01</leafValues></_>
        <_>
          <internalNodes>
            0 -1 62 -470825816 -1031353588 -90381654 -492449424
            1931099668 -781187540 1918334561 -747700777</internalNodes>
          <leafValues>
            -3.7642258405685425e-01 1.8866375088691711e-01</leafValues></_>
        <_>
          <internalNodes>
            0 -1 250 855750961 -1346449201 1520367345 -34425652
            -1708684400 -1909865996 -916955664 -859841352</internalNodes>
          <leafValues>
            -2.6317337155342102e-01 2.7953228354454041e-01</leafValues></_>
        <_>
          <internalNodes>
            0 -1 148 -260977616 -1087955147 -992645369 -1693050027
            1679769837 -1364223223 -1755738807 168773545</internalNodes>
          <leafValues>
            -3.3127632737159729e-01 2.2422835230827332e-01</leafValues></_>
        <_>
          <internalNodes>
            0 -1 198 -338956637 -829448369 -50861769 -798359832
            -17583157 1162925845 -131083037 -134760625</internalNodes>
          <leafValues>
            -1.9730053842067719e-01 3.6291033029556274e-01</leafValues></_>
        <_>
          <internalNodes>
            0 -1 156 -92518628 -772254353 302128150 1060640216
            -363664440 -1985445503 692642302 -1088795654</internalNodes>
          <leafValues>
            -2.8888583183288574e-01 2.5513127446174622e-01</leafValues></_>
        <_>
          <internalNodes>
            0 -1 28 -1430312310 145696981 -535579126 642601928
            1216768849 1993477754 2112287541 1092078471</internalNodes>
          <leafValues>
            -4.0516006946563721e-01 1.8087022006511688e-01</leafValues></_>
        <_>
          <internalNodes>
            0 -1 221 -456182976 971132528 -381976067 -38561139
            1924076381 905567215 969628625 -2020608990</internalNodes>
          <leafValues>
            -3.0675977468490601e-01 2.4726651608943939e-01</leafValues></_>
        <_>
          <internalNodes>
            0 -1 230 1992172832 470839960 -2011225597 213171968
            2028483889 1604849288 713121314 27261559</internalNodes>
          <leafValues>
            -5.0078588724136353e-01 1.4686731994152069e-01</leafValues></_>
        <_>
          <internalNodes>
            0 -1 71 -626107560 1571968280 -560192549 -6982105 170724793
            -1226103913 -1365173605 182199770</internalNodes>
          <leafValues>
            -3.0206492543220520e-01 2.4773561954498291e-01</leafValues></_>
        <_>
          <internalNodes>
            0 -1 74 1223468893 161723707 907574921 216306675 626344753
            482781362 -16157865 -857871086</internalNodes>
          <leafValues>
            -3.0572879314422607e-01 2.5401207804679871e-01</leafValues></_>
        <_>
          <internalNodes>
            0 -1 157 1215432952 1014500082 1119001687 -1727909060
            -82165134 1066619090 1053964860 -215813808</internalNodes>
          <leafValues>
            -3.5227420926094055e-01 2.1444049477577209e-01</leafValues></_>
        <_>
          <internalNodes>
            0 -1 185 1744416418 -473005238 294062130 1877269598
            1911386501 538625091 1428394463 -203114582</internalNodes>
          <leafValues>
            -2.7982529997825623e-01 2.7083337306976318e-01</leafValues></_></weakClassifiers></_>
    <!-- stage 8 -->
    <_>
      <maxWeakCount>23</maxWeakCount>
      <stageThreshold>-1.7199487686157227e+00</stageThreshold>
      <weakClassifiers>
        <_>
          <internalNodes>
            0 -1 85 -72615491 -684661667 732663484 -35392156 686522525
            -296003913 246222030 -607137553</internalNodes>
          <leafValues>
            -6.1766886711120605e-01 -1.5913978219032288e-01</leafValues></_>
        <_>
          <internalNodes>
            0 -1 205 -26236406 582922706 -1409356684 -792529190
            -1770536816 21764184 -428673200 -268435841</internalNodes>
          <leafValues>
            -3.3130201697349548e-01 1.7531447112560272e-01</leafValues></_>
        <_>
          <internalNodes>
            0 -1 168 605672669 468745215 -1084252163 -1111781922
            2075876861 -1109531653 862179308 -1992182248</internalNodes>
          <leafValues>
            -2.7991616725921631e-01 2.3578329384326935e-01</leafValues></_>
        <_>
          <internalNodes>
            0 -1 140 -644638562 1060245056 1025118196 -586072490 8422328
            1063128468 1013055658 1868506831</internalNodes>
          <leafValues>
            -2.6924684643745422e-01 2.3344381153583527e-01</leafValues></_>
        <_>
          <internalNodes>
            0 -1 118 -912220156 2117339932 -1668819148 786445137
            1646728316 -1620046371 651428029 539484687</internalNodes>
          <leafValues>
            -4.2627030611038208e-01 1.8599565327167511e-01</leafValues></_>
        <_>
          <internalNodes>
            0 -1 38 -1034958097 -108403445 -96011220 -498926490
            293988198 1699853731 -140411021 -1051207913</internalNodes>
          <leafValues>
            -3.2535737752914429e-01 1.9350454211235046e-01</leafValues></_>
        <_>
          <internalNodes>
            0 -1 187 -110329664 848396839 -222958917 1027559387
            181864714 -1727419424 46531007 539937467</internalNodes>
          <leafValues>
            -3.2092905044555664e-01 2.0452693104743958e-01</leafValues></_>
        <_>
          <internalNodes>
            0 -1 184 -140580222 -618287258 -488230366 -739082514
            -1242602300 1449623011 -171119134 -168298734</internalNodes>
          <leafValues>
            -2.3165579140186310e-01 2.8444862365722656e-01</leafValues></_>
        <_>
          <internalNodes>
            0 -1 302 -1371636446 1112179040 1968888609 -1405815064
            -1484331078 -532809803 -109514202 -734004802</internalNodes>
          <leafValues>
            -3.0292916297912598e-01 2.1832349896430969e-01</leafValues></_>
        <_>
          <internalNodes>
            0 -1 251 86512400 238058236 -39875491 -1342908476 1928219312
            -1402453382 -1250029923 -1516167088</internalNodes>
          <leafValues>
            -4.2340511083602905e-01 1.5882186591625214e-01</leafValues></_>
        <_>
          <internalNodes>
            0 -1 141 -354956790 331392347 1760200438 693426608
            1141770372 -2040448203 1214422716 839567390</internalNodes>
          <leafValues>
            -3.6893498897552490e-01 1.8559697270393372e-01</leafValues></_>
        <_>
          <internalNodes>
            0 -1 293 1543474082 855489913 2123873040 415953603 -90088243
            768928259 -1093289953 406147822</internalNodes>
          <leafValues>
            -3.0011051893234253e-01 2.2105957567691803e-01</leafValues></_>
        <_>
          <internalNodes>
            0 -1 216 -427056126 46933544 1245848096 -487610976 774355264
            1282585419 1130722965 -1062804541</internalNodes>
          <leafValues>
            -3.7406376004219055e-01 1.7696592211723328e-01</leafValues></_>
        <_>
          <internalNodes>
            0 -1 267 -1356321263 -1922383216 -2133838607 -47648944
            680539864 -423848754 428794352 -387056424</internalNodes>
          <leafValues>
            -3.0539688467979431e-01 2.2452338039875031e-01</leafValues></_>
        <_>
          <internalNodes>
            0 -1 103 -67425415 -207727876 -1194677133 -28806567
            -298040059 -595624368 -689505592 -149435037</internalNodes>
          <leafValues>
            -2.2624748945236206e-01 3.1620451807975769e-01</leafValues></_>
        <_>
          <internalNodes>
            0 -1 174 1010968608 293643236 69407208 -1484403558 626914709
            2031365504 1793740932 1661441774</internalNodes>
          <leafValues>
            -4.2052745819091797e-01 1.6473299264907837e-01</leafValues></_>
        <_>
          <internalNodes>
            0 -1 303 -609841824 1937460580 -1346400578 -4625650
            -1221828132 1291689457 -571697750 -1882519902</internalNodes>
          <leafValues>
            -2.4406437575817108e-01 2.9828101396560669e-01</leafValues></_>
        <_>
          <internalNodes>
            0 -1 6 771901454 721187567 -359739652 1053841719 576195289
            1581217805 -473268872 339769600</internalNodes>
          <leafValues>
            -5.2785307168960571e-01 1.3549676537513733e-01</leafValues></_>
        <_>
          <internalNodes>
            0 -1 200 -349191249 -746160262 -496275934 -536887638
            1862002115 2065169994 -276831266 -150994966</internalNodes>
          <leafValues>
            -1.8558442592620850e-01 4.1204649209976196e-01</leafValues></_>
        <_>
          <internalNodes>
            0 -1 203 -542666062 -158346600 1078190265 746281262 46404106
            -847208 1501598619 1794873919</internalNodes>
          <leafValues>
            -2.8057959675788879e-01 2.6531085371971130e-01</leafValues></_>
        <_>
          <internalNodes>
            0 -1 80 -97006546 639100602 -600323420 442164922 -113616634
            1969372011 -1306697104 1718057577</internalNodes>
          <leafValues>
            -5.4036372900009155e-01 1.3469696044921875e-01</leafValues></_>
        <_>
          <internalNodes>
            0 -1 189 1828693536 1658507750 961305046 1928470443
            596575365 583113209 -421790228 -37101504</internalNodes>
          <leafValues>
            -3.0400973558425903e-01 2.3248784244060516e-01</leafValues></_>
        <_>
          <internalNodes>
            0 -1 26 -2006269070 889401345 607818 1965143509 54953132
            -889746681 -1916944303 1411736656</internalNodes>
          <leafValues>
            -4.5982208847999573e-01 1.5585476160049438e-01</leafValues></_></weakClassifiers></_>
    <!-- stage 9 -->
    <_>
      <maxWeakCount>25</maxWeakCount>
      <stageThreshold>-1.5437906980514526e+00</stageThreshold>
      <weakClassifiers>
        <_>
          <internalNodes>
            0 -1 308 -171972735 -33687045 -336349307 -34216238
            -293077505 -1431904056 -1360287253 -2114477653</internalNodes>
          <leafValues>
            -6.1126250028610229e-01 -1.4859437942504883e-01</leafValues></_>
        <_>
          <internalNodes>
            0 -1 159 1370511824 277999509 -420036737 -1612914236
            -1330451459 -1073883203 -1074931576 699006668</internalNodes>
          <leafValues>
            -3.4692242741584778e-01 1.5239733457565308e-01</leafValues></_>
        <_>
          <internalNodes>
            0 -1 124 -805273056 386569674 198350789 1565928098
            1276420606 -302539799 1817881754 947077455</internalNodes>
          <leafValues>
            -3.1229549646377563e-01 1.9387766718864441e-01</leafValues></_>
        <_>
          <internalNodes>
            0 -1 73 -123667630 -116462656 -1505974404 1936062480
            203203507 -100745310 1143865484 -6469425</internalNodes>
          <leafValues>
            -2.2148627042770386e-01 2.6807701587677002e-01</leafValues></_>
        <_>
          <internalNodes>
            0 -1 214 -238041558 -735438196 934553930 -210143298
            1869734646 1459976132 -142739526 -134220318</internalNodes>
          <leafValues>
            -1.4101821184158325e-01 3.5839083790779114e-01</leafValues></_>
        <_>
          <internalNodes>
            0 -1 219 218105949 -1095752620 -558201379 -1655701016
            209852336 -1900253004 2147117512 -1893719940</internalNodes>
          <leafValues>
            -3.2433959841728210e-01 1.9635866582393646e-01</leafValues></_>
        <_>
          <internalNodes>
            0 -1 95 -70266625 -541245849 -622250309 1937746750
            -205527688 -77103308 382792954 -613941537</internalNodes>
          <leafValues>
            -1.5777662396430969e-01 4.2545682191848755e-01</leafValues></_>
        <_>
          <internalNodes>
            0 -1 207 285213720 146550818 -290804197 -1917364568
            519295376 2095704814 -841687591 186528</internalNodes>
          <leafValues>
            -5.0164121389389038e-01 1.2811790406703949e-01</leafValues></_>
        <_>
          <internalNodes>
            0 -1 171 -523262334 1056948578 -470266606 -742456030
            1173350319 1819559637 1708709661 -1552685073</internalNodes>
          <leafValues>
            -2.2647768259048462e-01 2.8040486574172974e-01</leafValues></_>
        <_>
          <internalNodes>
            0 -1 16 -1710831406 -1398785587 711468799 -818884641
            1268746746 -78227050 -1887008290 890257956</internalNodes>
          <leafValues>
            -3.9421898126602173e-01 1.6300596296787262e-01</leafValues></_>
        <_>
          <internalNodes>
            0 -1 181 -354662291 609699381 -1396279907 -1956782145
            -531889835 -1620712669 -926314692 -1384261533</internalNodes>
          <leafValues>
            -2.4211265146732330e-01 2.5035169720649719e-01</leafValues></_>
        <_>
          <internalNodes>
            0 -1 199 -96477178 -431034646 -687750974 -190385982
            1541337217 537291891 1887796064 -156959810</internalNodes>
          <leafValues>
            -2.8225737810134888e-01 2.2853448987007141e-01</leafValues></_>
        <_>
          <internalNodes>
            0 -1 127 -133030890 -36170470 -860742755 165181808
            -1501810572 -1705031070 -356197672 -1664969117</internalNodes>
          <leafValues>
            -3.2682979106903076e-01 1.9750986993312836e-01</leafValues></_>
        <_>
          <internalNodes>
            0 -1 190 1815606942 -1856133292 114564945 -1116246949
            -1250454864 -1313329104 562169787 1032272190</internalNodes>
          <leafValues>
            -2.8109765052795410e-01 2.3548850417137146e-01</leafValues></_>
        <_>
          <internalNodes>
            0 -1 78 269102318 1043910866 1807676278 142097574 884557285
            423562140 -810721502 1664561706</internalNodes>
          <leafValues>
            -4.4168674945831299e-01 1.4986681938171387e-01</leafValues></_>
        <_>
          <internalNodes>
            0 -1 130 -629220170 1540380575 -119005922 -342455966
            -1564863916 -581280274 -1074766982 -1089898234</internalNodes>
          <leafValues>
            -2.6182737946510315e-01 2.4481955170631409e-01</leafValues></_>
        <_>
          <internalNodes>
            0 -1 81 1346894513 841524928 -1744731001 1243275474
            215944367 -357830095 -846182362 1325533256</internalNodes>
          <leafValues>
            -3.3292195200920105e-01 1.9542641937732697e-01</leafValues></_>
        <_>
          <internalNodes>
            0 -1 42 -1540905043 -846222846 -1944926428 -408686966
            541323507 -1325275779 1773642727 1398224886</internalNodes>
          <leafValues>
            -2.6837456226348877e-01 2.4956801533699036e-01</leafValues></_>
        <_>
          <internalNodes>
            0 -1 142 -618149732 818219112 -1065816352 -44745363
            -1167187811 1104717988 -594309717 495548257</internalNodes>
          <leafValues>
            -2.7556437253952026e-01 2.4363368749618530e-01</leafValues></_>
        <_>
          <internalNodes>
            0 -1 320 -33608159 567786269 -1521070816 1089459338
            777463655 1639461258 1475599936 1427974371</internalNodes>
          <leafValues>
            -3.4318110346794128e-01 1.9907283782958984e-01</leafValues></_>
        <_>
          <internalNodes>
            0 -1 83 -554890240 -1252513119 1881041594 1142704351
            -260898304 -207937225 -1515504967 -201687605</internalNodes>
          <leafValues>
            -2.8748521208763123e-01 2.4582006037235260e-01</leafValues></_>
        <_>
          <internalNodes>
            0 -1 69 -1965814766 1700974854 -950085001 443515504
            712845623 1551543612 486258739 1213224465</internalNodes>
          <leafValues>
            -5.1339739561080933e-01 1.4106443524360657e-01</leafValues></_>
        <_>
          <internalNodes>
            0 -1 258 -187386824 1359196675 -839451971 -571656703
            -191453291 -1731592201 2088464010 1053526707</internalNodes>
          <leafValues>
            -2.5583434104919434e-01 2.7902254462242126e-01</leafValues></_>
        <_>
          <internalNodes>
            0 -1 307 -1467303264 -1063098663 1564955649 -1647644556
            -1548115596 -1460071505 -1357163820 -663030567</internalNodes>
          <leafValues>
            -3.4244522452354431e-01 2.1060837805271149e-01</leafValues></_>
        <_>
          <internalNodes>
            0 -1 255 -1069187028 2032375353 1132915183 1136042618
            -1320413811 162374833 1958798492 -340505798</internalNodes>
          <leafValues>
            -2.7592930197715759e-01 2.6807576417922974e-01</leafValues></_></weakClassifiers></_>
    <!-- stage 10 -->
    <_>
      <maxWeakCount>23</maxWeakCount>
      <stageThreshold>-1.4949692487716675e+00</stageThreshold>
      <weakClassifiers>
        <_>
          <internalNodes>
            0 -1 117 989485663 -2199041 -137381921 -1107397825
            -549515787 -336717617 -11673605 -286114270</internalNodes>
          <leafValues>
            -6.6456729173660278e-01 -2.6173588633537292e-01</leafValues></_>
        <_>
          <internalNodes>
            0 -1 294 -1571112909 -1468348765 -1210762334 -974218016
            -337750203 -2035418630 -410005231 -840335243</internalNodes>
          <leafValues>
            -3.5575196146965027e-01 1.2737888097763062e-01</leafValues></_>
        <_>
          <internalNodes>
            0 -1 122 -1128849149 604519469 1667074115 -1473380865
            -942409871 258470693 -1883207119 610329425</internalNodes>
          <leafValues>
            -3.9977666735649109e-01 1.3569991290569305e-01</leafValues></_>
        <_>
          <internalNodes>
            0 -1 72 591023654 -1571451941 1242023666 -1075847898
            249219045 928748854 -428633350 1682236279</internalNodes>
          <leafValues>
            -4.0140926837921143e-01 1.5833209455013275e-01</leafValues></_>
        <_>
          <internalNodes>
            0 -1 289 -790091776 -1029437513 1673606704 627070243
            -1747748513 -1406833924 -2022083289 140572535</internalNodes>
          <leafValues>
            -4.1656538844108582e-01 1.4238704741001129e-01</leafValues></_>
        <_>
          <internalNodes>
            0 -1 107 -939916207 -1594721442 -57272324 -160404790
            -1119943424 934037532 -783199744 -1861041119</internalNodes>
          <leafValues>
            -3.7391892075538635e-01 1.5010815858840942e-01</leafValues></_>
        <_>
          <internalNodes>
            0 -1 191 1537378440 1512086584 -92191688 61903521 2091892952
            348089312 3211482 1896174262</internalNodes>
          <leafValues>
            -3.3664765954017639e-01 1.7233768105506897e-01</leafValues></_>
        <_>
          <internalNodes>
            0 -1 253 622817218 318946794 2079552349 -35131226 1573349815
            -319099966 1429730793 1161813373</internalNodes>
          <leafValues>
            -2.7958869934082031e-01 2.0546428859233856e-01</leafValues></_>
        <_>
          <internalNodes>
            0 -1 108 -1060870261 1930561047 1694285599 551295733
            1089802109 -380735590 114275436 -550537217</internalNodes>
          <leafValues>
            -2.3131088912487030e-01 2.5900375843048096e-01</leafValues></_>
        <_>
          <internalNodes>
            0 -1 220 -1761303591 -1129038027 939491317 1610078012 -41327
            -1127325857 -1174643544 -560028472</internalNodes>
          <leafValues>
            -2.1894530951976776e-01 2.7671945095062256e-01</leafValues></_>
        <_>
          <internalNodes>
            0 -1 39 -1258297810 -2113439004 671592174 -332464935
            -1558485244 1932460367 -444630198 -776604266</internalNodes>
          <leafValues>
            -3.2152161002159119e-01 1.9448888301849365e-01</leafValues></_>
        <_>
          <internalNodes>
            0 -1 132 116240223 -1088659331 2090353886 510809967
            -371447483 -541405603 -1228488868 -26744269</internalNodes>
          <leafValues>
            -2.4981206655502319e-01 2.4209141731262207e-01</leafValues></_>
        <_>
          <internalNodes>
            0 -1 211 1615478984 -1722394494 1251010424 832605808
            -103741513 -1246506653 205847752 978518118</internalNodes>
          <leafValues>
            -3.7221848964691162e-01 1.6863033175468445e-01</leafValues></_>
        <_>
          <internalNodes>
            0 -1 232 -472996352 14988204 135037062 924114981 206478854
            -1269430122 1414106612 1410507792</internalNodes>
          <leafValues>
            -3.9340651035308838e-01 1.4724873006343842e-01</leafValues></_>
        <_>
          <internalNodes>
            0 -1 10 -2003259886 1605023555 935205174 1592930260
            -1893262017 -1543864217 172055831 1089798711</internalNodes>
          <leafValues>
            -4.5099377632141113e-01 1.2970609962940216e-01</leafValues></_>
        <_>
          <internalNodes>
            0 -1 46 -890517825 174827135 -286380377 228980268 1416361454
            1886682487 -336003767 -716735657</internalNodes>
          <leafValues>
            -2.2888767719268799e-01 2.7391767501831055e-01</leafValues></_>
        <_>
          <internalNodes>
            0 -1 265 1314712955 -1943291984 -808108747 -52512555
            111787489 -2000968016 1182602480 -846341926</internalNodes>
          <leafValues>
            -2.5287905335426331e-01 2.4459421634674072e-01</leafValues></_>
        <_>
          <internalNodes>
            0 -1 13 -957830505 1530412990 1862201142 -991496346
            1192745885 1316978559 2001811279 -799670273</internalNodes>
          <leafValues>
            -2.1730323135852814e-01 2.8855112195014954e-01</leafValues></_>
        <_>
          <internalNodes>
            0 -1 112 1626327720 -260904333 -1162936757 -748507226
            -353689674 523729717 852440542 -1681672129</internalNodes>
          <leafValues>
            -2.0974646508693695e-01 2.9614904522895813e-01</leafValues></_>
        <_>
          <internalNodes>
            0 -1 270 -173565953 -609716188 -67162615 2076701714
            -2085837670 -1913286338 1761398189 -35661381</internalNodes>
          <leafValues>
            -1.5446506440639496e-01 4.1826483607292175e-01</leafValues></_>
        <_>
          <internalNodes>
            0 -1 61 796640989 1043516794 1835493001 1320627954
            -1216927856 -61379587 239134047 -128647824</internalNodes>
          <leafValues>
            -2.2656929492950439e-01 2.7940946817398071e-01</leafValues></_>
        <_>
          <internalNodes>
            0 -1 91 7360590 374616573 -318301378 -1026364195 -1734278792
            -82028299 -274963606 -770554526</internalNodes>
          <leafValues>
            -3.9802441000938416e-01 1.6249187290668488e-01</leafValues></_>
        <_>
          <internalNodes>
            0 -1 110 2002019616 634424815 1093608116 532447884
            1147422386 -1173702921 -42469878 1217071372</internalNodes>
          <leafValues>
            -3.6990073323249817e-01 1.7568363249301910e-01</leafValues></_></weakClassifiers></_>
    <!-- stage 11 -->
    <_>
      <maxWeakCount>25</maxWeakCount>
      <stageThreshold>-1.4010670185089111e+00</stageThreshold>
      <weakClassifiers>
        <_>
          <internalNodes>
            0 -1 322 -75501889 -1024469049 -771122301 -203445298
            -205545837 1145568415 -134286057 -135266325</internalNodes>
          <leafValues>
            -5.8910638093948364e-01 -1.1871813237667084e-01</leafValues></_>
        <_>
          <internalNodes>
            0 -1 316 2140094243 42002416 -572038351 -320677176 765078576
            758839714 1703377269 -993526537</internalNodes>
          <leafValues>
            -3.4532168507575989e-01 1.4171743392944336e-01</leafValues></_>
        <_>
          <internalNodes>
            0 -1 59 -487356761 -1287621669 -967942592 -2113735000
            -351035113 1078388739 -2014521681 -196872346</internalNodes>
          <leafValues>
            -2.4381400644779205e-01 2.3628489673137665e-01</leafValues></_>
        <_>
          <internalNodes>
            0 -1 49 -1428361693 177138343 -1394765206 -932125344
            442988357 1147012699 -478776764 829945682</internalNodes>
          <leafValues>
            -3.4898847341537476e-01 1.4958767592906952e-01</leafValues></_>
        <_>
          <internalNodes>
            0 -1 7 2083244616 -1827152258 -2135564773 2038431387
            -866874820 -1379973673 2121328024 2131842832</internalNodes>
          <leafValues>
            -2.7929434180259705e-01 2.0654903352260590e-01</leafValues></_>
        <_>
          <internalNodes>
            0 -1 240 942744112 170968050 -1617086658 -810750612
            -837173551 -1469205105 890524664 -2064141936</internalNodes>
          <leafValues>
            -3.5588982701301575e-01 1.6689288616180420e-01</leafValues></_>
        <_>
          <internalNodes>
            0 -1 213 -248651222 -562644883 1392125712 -179603480
            1056884522 1374027571 -1099122802 -177279249</internalNodes>
          <leafValues>
            -2.1216675639152527e-01 2.7660793066024780e-01</leafValues></_>
        <_>
          <internalNodes>
            0 -1 188 -1026045438 1149763111 -1737433248 1090426702
            1322994506 292936362 1861665335 -185605155</internalNodes>
          <leafValues>
            -2.8883200883865356e-01 1.9538810849189758e-01</leafValues></_>
        <_>
          <internalNodes>
            0 -1 266 -1787036399 -1120035852 2142660597 1429069673
            -1472352324 -36733250 -1630219335 -572792624</internalNodes>
          <leafValues>
            -1.9249027967453003e-01 3.1098857522010803e-01</leafValues></_>
        <_>
          <internalNodes>
            0 -1 166 2023548578 -1642224936 -454030846 -1266692060
            1204738214 515976328 992419791 924535638</internalNodes>
          <leafValues>
            -3.1892442703247070e-01 1.9111934304237366e-01</leafValues></_>
        <_>
          <internalNodes>
            0 -1 92 571888218 -1949143498 -40921858 -1894056197
            -550608130 -1349023568 522001087 -1810743710</internalNodes>
          <leafValues>
            -3.3572179079055786e-01 1.7796438932418823e-01</leafValues></_>
        <_>
          <internalNodes>
            0 -1 271 2117517772 1354278407 -544908282 924857600
            -455245571 -1470927851 -1035540352 -1260402145</internalNodes>
          <leafValues>
            -2.7793422341346741e-01 2.1362060308456421e-01</leafValues></_>
        <_>
          <internalNodes>
            0 -1 291 193971110 1358773877 2140925040 1085846909
            -126282015 1209957464 -971157127 1213187285</internalNodes>
          <leafValues>
            -3.3311399817466736e-01 1.7860351502895355e-01</leafValues></_>
        <_>
          <internalNodes>
            0 -1 87 -769873920 211368060 217842416 -728530049 -784737744
            1518547330 604585057 389968743</internalNodes>
          <leafValues>
            -4.2906862497329712e-01 1.3841125369071960e-01</leafValues></_>
        <_>
          <internalNodes>
            0 -1 104 1658728079 -126090614 -157639073 -1601899459
            -1304734969 -875855520 1316332151 -76030353</internalNodes>
          <leafValues>
            -2.7827554941177368e-01 2.1363925933837891e-01</leafValues></_>
        <_>
          <internalNodes>
            0 -1 152 1429384960 285912845 338882545 -1232717214
            1507874028 -1446697842 -511238962 805121038</internalNodes>
          <leafValues>
            -3.2423496246337891e-01 1.8418565392494202e-01</leafValues></_>
        <_>
          <internalNodes>
            0 -1 259 -1049173344 362583294 677656240 488652931
            1271276526 -1950210380 -971071074 744439839</internalNodes>
          <leafValues>
            -3.1395936012268066e-01 1.9235701858997345e-01</leafValues></_>
        <_>
          <internalNodes>
            0 -1 170 -303069942 -622596438 2007457363 -76546114
            1713372546 1141165910 -546049098 -704776765</internalNodes>
          <leafValues>
            -2.2332242131233215e-01 2.8082889318466187e-01</leafValues></_>
        <_>
          <internalNodes>
            0 -1 281 -1197475549 -1975141823 -1632670191 1817873759
            36651872 202363894 1299869457 -858409022</internalNodes>
          <leafValues>
            -3.3075892925262451e-01 1.9700950384140015e-01</leafValues></_>
        <_>
          <internalNodes>
            0 -1 325 -3732666 317581134 1849867776 175007472 -245148144
            1805054979 -169935096 -488052998</internalNodes>
          <leafValues>
            -3.0751401185989380e-01 2.1170391142368317e-01</leafValues></_>
        <_>
          <internalNodes>
            0 -1 0 216115904 -1996533777 1084148558 -323168676
            1674820967 588209890 -1584055739 281093399</internalNodes>
          <leafValues>
            -4.2457124590873718e-01 1.6083312034606934e-01</leafValues></_>
        <_>
          <internalNodes>
            0 -1 215 1301266978 1347792340 -2070249122 -304614328
            873178023 979919434 1793041455 1939339172</internalNodes>
          <leafValues>
            -2.7229350805282593e-01 2.3558969795703888e-01</leafValues></_>
        <_>
          <internalNodes>
            0 -1 101 592216720 1371352352 -1521273813 801086310
            140876990 1060195374 1847064670 1281300172</internalNodes>
          <leafValues>
            -3.3275741338729858e-01 1.9752128422260284e-01</leafValues></_>
        <_>
          <internalNodes>
            0 -1 195 424631837 766148093 -1212491139 -1951033370
            -596902791 -1149457945 1715441904 -1321849430</internalNodes>
          <leafValues>
            -2.6218378543853760e-01 2.4872308969497681e-01</leafValues></_>
        <_>
          <internalNodes>
            0 -1 93 -530789780 1056963720 -1433215836 540034679
            -93273833 995602439 1905949896 1732403533</internalNodes>
          <leafValues>
            -3.9321914315223694e-01 1.6082730889320374e-01</leafValues></_></weakClassifiers></_>
    <!-- stage 12 -->
    <_>
      <maxWeakCount>26</maxWeakCount>
      <stageThreshold>-1.4368175268173218e+00</stageThreshold>
      <weakClassifiers>
        <_>
          <internalNodes>
            0 -1 229 -144726998 -780219957 -1399892320 -772017006
            -1212426417 39534548 -135269394 -717227010</internalNodes>
          <leafValues>
            -6.2742239236831665e-01 -2.5030624866485596e-01</leafValues></_>
        <_>
          <internalNodes>
            0 -1 279 262373308 -772112416 -1113196641 -8652582
            -2039495753 -17056374 211156931 -1931537971</internalNodes>
          <leafValues>
            -3.1275105476379395e-01 1.5024615824222565e-01</leafValues></_>
        <_>
          <internalNodes>
            0 -1 45 -270801270 179043048 1784001312 -621055794
            1742438179 1423165734 -1232382896 -1011354637</internalNodes>
          <leafValues>
            -3.0621540546417236e-01 1.6132120788097382e-01</leafValues></_>
        <_>
          <internalNodes>
            0 -1 264 556315008 -1308470234 -50933907 -687383408
            207827357 2110354131 1350916747 1140455338</internalNodes>
          <leafValues>
            -2.6823174953460693e-01 1.8970076739788055e-01</leafValues></_>
        <_>
          <internalNodes>
            0 -1 97 -815193803 -555330250 900175613 -1989258453
            -890667264 -168367948 -293786888 -217411975</internalNodes>
          <leafValues>
            -2.2818800806999207e-01 2.3563313484191895e-01</leafValues></_>
        <_>
          <internalNodes>
            0 -1 126 1319022083 412657754 1851421820 1096833698
            1579116732 1886743421 953764760 -51025586</internalNodes>
          <leafValues>
            -2.5801748037338257e-01 2.0472128689289093e-01</leafValues></_>
        <_>
          <internalNodes>
            0 -1 319 -37884895 1677678310 1992126048 1795071731
            -403308713 2028339191 -562594110 1079506895</internalNodes>
          <leafValues>
            -2.0807282626628876e-01 2.5439065694808960e-01</leafValues></_>
        <_>
          <internalNodes>
            0 -1 193 475815152 -1657112080 1331410620 -1154198284
            1985032532 -1213224620 1554255352 -368441552</internalNodes>
          <leafValues>
            -3.1607368588447571e-01 1.7349635064601898e-01</leafValues></_>
        <_>
          <internalNodes>
            0 -1 183 -210246046 1922694828 -1335511328 2057195120
            -169232773 1882093158 -494936181 -137177372</internalNodes>
          <leafValues>
            -2.2879327833652496e-01 2.4790789186954498e-01</leafValues></_>
        <_>
          <internalNodes>
            0 -1 249 -819286667 -1888961632 1206302193 -39403920
            -1630096659 -1895892484 773823928 -15768336</internalNodes>
          <leafValues>
            -2.1322941780090332e-01 2.6542690396308899e-01</leafValues></_>
        <_>
          <internalNodes>
            0 -1 167 -797092134 805154518 541862261 391203372 -82630630
            1056395930 1416453018 215837691</internalNodes>
          <leafValues>
            -2.7966818213462830e-01 2.0279963314533234e-01</leafValues></_>
        <_>
          <internalNodes>
            0 -1 226 -322416704 -113618881 -504985001 -684772069
            -957389666 -1883483535 -1405495920 -343287557</internalNodes>
          <leafValues>
            -2.0731155574321747e-01 2.8175130486488342e-01</leafValues></_>
        <_>
          <internalNodes>
            0 -1 121 565929749 984645897 -175693955 -150701132 607666229
            -1145164517 1306481116 -1881470469</internalNodes>
          <leafValues>
            -2.5821593403816223e-01 2.2652851045131683e-01</leafValues></_>
        <_>
          <internalNodes>
            0 -1 317 1196166951 -1397763123 -584933008 -397105526
            -51504124 -1950897533 -430662336 -997366945</internalNodes>
          <leafValues>
            -3.2756435871124268e-01 1.7819921672344208e-01</leafValues></_>
        <_>
          <internalNodes>
            0 -1 286 -1865637608 -83908626 -26396160 -396612069 24844159
            -1664671223 -494305365 14740755</internalNodes>
          <leafValues>
            -3.8460406661033630e-01 1.5535460412502289e-01</leafValues></_>
        <_>
          <internalNodes>
            0 -1 88 -910120414 1587128411 1024485407 1145467922 84843699
            762227638 687359830 1214065522</internalNodes>
          <leafValues>
            -3.9699968695640564e-01 1.4679819345474243e-01</leafValues></_>
        <_>
          <internalNodes>
            0 -1 233 1981637844 323565624 1843350424 1504299290
            -1362411616 -1661539397 -1255294550 683112337</internalNodes>
          <leafValues>
            -3.0671358108520508e-01 1.9982789456844330e-01</leafValues></_>
        <_>
          <internalNodes>
            0 -1 280 -877411952 25448844 -1567534316 -472964541
            524234976 -1295629191 136146817 99545834</internalNodes>
          <leafValues>
            -3.2182866334915161e-01 1.8615563213825226e-01</leafValues></_>
        <_>
          <internalNodes>
            0 -1 17 6426210 1330403362 186560409 -700659211 758458605
            1270073873 1849887871 204474432</internalNodes>
          <leafValues>
            -5.9455931186676025e-01 9.4646982848644257e-02</leafValues></_>
        <_>
          <internalNodes>
            0 -1 154 -1341208576 566200 -1472863352 577012317
            -1451548880 540907696 1997498368 480652854</internalNodes>
          <leafValues>
            -5.4012942314147949e-01 1.0515633970499039e-01</leafValues></_>
        <_>
          <internalNodes>
            0 -1 242 -41235958 329913352 -397554718 571385959 -647803068
            1129662546 2003687016 1922754286</internalNodes>
          <leafValues>
            -3.4754499793052673e-01 1.6695287823677063e-01</leafValues></_>
        <_>
          <internalNodes>
            0 -1 75 2085375307 -59021232 -459542267 -990665282
            -2106609025 -133263103 -527322236 1310328523</internalNodes>
          <leafValues>
            -2.8266018629074097e-01 2.1641772985458374e-01</leafValues></_>
        <_>
          <internalNodes>
            0 -1 145 1174552576 1009379748 838504134 -2035251872
            2101421236 1831781342 72598693 2205764</internalNodes>
          <leafValues>
            -6.1062836647033691e-01 1.0274777561426163e-01</leafValues></_>
        <_>
          <internalNodes>
            0 -1 163 -960501085 741146346 536831698 -1789988930
            1994889098 368531210 2013246918 -237244690</internalNodes>
          <leafValues>
            -2.3225139081478119e-01 2.6381540298461914e-01</leafValues></_>
        <_>
          <internalNodes>
            0 -1 274 -137511792 -617594186 1675718193 -548516411
            -868222998 563048131 127894907 -1392773991</internalNodes>
          <leafValues>
            -1.9912394881248474e-01 3.0641919374465942e-01</leafValues></_>
        <_>
          <internalNodes>
            0 -1 70 -215812461 2084220432 -86103289 -43628096 715591935
            -12802178 -176404402 -512596773</internalNodes>
          <leafValues>
            -2.1764086186885834e-01 2.8285524249076843e-01</leafValues></_></weakClassifiers></_>
    <!-- stage 13 -->
    <_>
      <maxWeakCount>30</maxWeakCount>
      <stageThreshold>-1.4061982631683350e+00</stageThreshold>
      <weakClassifiers>
        <_>
          <internalNodes>
            0 -1 282 -877658717 -71384609 1704852983 -811638881
            2075127799 -1461462086 -1956643845 -977799733</internalNodes>
          <leafValues>
            -6.0781311988830566e-01 -2.2211253643035889e-01</leafValues></_>
        <_>
          <internalNodes>
            0 -1 244 -691559934 1901253163 209846696 2137494758
            1100251791 437598785 -419829474 1471152086</internalNodes>
          <leafValues>
            -2.7572607994079590e-01 1.7135961353778839e-01</leafValues></_>
        <_>
          <internalNodes>
            0 -1 50 721137195 106646191 -970260616 784529226 1800804421
            1320564762 -169841820 2013519473</internalNodes>
          <leafValues>
            -3.2251995801925659e-01 1.5043957531452179e-01</leafValues></_>
        <_>
          <internalNodes>
            0 -1 318 1188274187 1861103227 -1973196862 -118884696
            1975662036 1224678441 -1579137788 -999955712</internalNodes>
          <leafValues>
            -2.9100912809371948e-01 1.6995264589786530e-01</leafValues></_>
        <_>
          <internalNodes>
            0 -1 182 -672666590 -236978434 1861078024 -437586126
            1328514503 1283045345 1953929196 -254480908</internalNodes>
          <leafValues>
            -1.8440137803554535e-01 2.6611173152923584e-01</leafValues></_>
        <_>
          <internalNodes>
            0 -1 119 2057961552 -1110442236 397472666 1898864503
            -1151273936 -56704464 -44239762 2137152325</internalNodes>
          <leafValues>
            -3.5079142451286316e-01 1.3850465416908264e-01</leafValues></_>
        <_>
          <internalNodes>
            0 -1 139 -159931766 1305292510 875823857 -945875229
            -1445331048 -245257951 -1089028626 1045203971</internalNodes>
          <leafValues>
            -2.4243243038654327e-01 2.1835835278034210e-01</leafValues></_>
        <_>
          <internalNodes>
            0 -1 158 67519520 3078870 -281707566 -1939816858 1496465925
            -1170412500 644578048 616394760</internalNodes>
          <leafValues>
            -5.3615224361419678e-01 9.8329417407512665e-02</leafValues></_>
        <_>
          <internalNodes>
            0 -1 218 -879877884 -473452231 -1820397152 1794259044
            -993325455 147974193 -408291756 -486998934</internalNodes>
          <leafValues>
            -2.9984641075134277e-01 1.6855862736701965e-01</leafValues></_>
        <_>
          <internalNodes>
            0 -1 115 -427668377 768897617 1981987076 1024519004 -9024192
            -6411512 -1088618772 -1172287915</internalNodes>
          <leafValues>
            -3.1407207250595093e-01 1.6296349465847015e-01</leafValues></_>
        <_>
          <internalNodes>
            0 -1 162 645917860 431926246 -611053697 -1176191095
            -1326487557 -666508901 -1047482720 2065247778</internalNodes>
          <leafValues>
            -2.7818346023559570e-01 1.9191642105579376e-01</leafValues></_>
        <_>
          <internalNodes>
            0 -1 113 1382080722 1490170137 1791811130 -1122877190
            1842349200 1054767568 1759363279 558062354</internalNodes>
          <leafValues>
            -3.0254063010215759e-01 1.7745617032051086e-01</leafValues></_>
        <_>
          <internalNodes>
            0 -1 5 237940043 -2107810 -664831009 1993373678 2126170425
            -1994475189 -87755012 -534053520</internalNodes>
          <leafValues>
            -2.5608217716217041e-01 2.1670855581760406e-01</leafValues></_>
        <_>
          <internalNodes>
            0 -1 160 1362412756 -1130876452 -729023513 -940142167
            1468664736 1324905339 1924792901 2108123078</internalNodes>
          <leafValues>
            -2.5832933187484741e-01 2.1413254737854004e-01</leafValues></_>
        <_>
          <internalNodes>
            0 -1 35 212599682 -859255497 1343226335 1021665140
            -318771293 151455584 1594302004 1144462183</internalNodes>
          <leafValues>
            -4.6702319383621216e-01 1.1874994635581970e-01</leafValues></_>
        <_>
          <internalNodes>
            0 -1 114 -1033927105 456572583 2100252478 -544776582
            515294590 2004331884 785763868 -1371091329</internalNodes>
          <leafValues>
            -2.1526654064655304e-01 2.6762777566909790e-01</leafValues></_>
        <_>
          <internalNodes>
            0 -1 263 1785475514 527770377 1087706739 1326390577
            -1534710024 -1167007212 -1658217476 167783208</internalNodes>
          <leafValues>
            -3.9478880167007446e-01 1.5220728516578674e-01</leafValues></_>
        <_>
          <internalNodes>
            0 -1 256 1211523185 -1810488517 -552817713 538093871
            1174213108 -586798565 -642201619 -140644370</internalNodes>
          <leafValues>
            -2.5585871934890747e-01 2.4001865088939667e-01</leafValues></_>
        <_>
          <internalNodes>
            0 -1 297 1806957088 1518070504 -1363396358 -684066669
            -2127563580 1410693097 -1543773237 -1012947748</internalNodes>
          <leafValues>
            -2.0456203818321228e-01 2.8525128960609436e-01</leafValues></_>
        <_>
          <internalNodes>
            0 -1 2 -1097086390 981775295 -1349962052 734126067
            -1192109838 -1025408416 -1545183347 1970351970</internalNodes>
          <leafValues>
            -3.0079969763755798e-01 2.0158267021179199e-01</leafValues></_>
        <_>
          <internalNodes>
            0 -1 269 -766928929 -545935817 1828707991 359771946
            1877597245 -1778790547 -379620133 -1187641</internalNodes>
          <leafValues>
            -1.3296929001808167e-01 4.3294116854667664e-01</leafValues></_>
        <_>
          <internalNodes>
            0 -1 323 1457463562 763702 -1400351098 1683638280 -550547904
            6856503 -1313335774 1342663539</internalNodes>
          <leafValues>
            -4.8723626136779785e-01 1.2401875853538513e-01</leafValues></_>
        <_>
          <internalNodes>
            0 -1 305 1351282435 -1485511815 -975883911 -67383189
            1541088067 1110936710 1313755328 1155417346</internalNodes>
          <leafValues>
            -3.2050451636314392e-01 1.8712592124938965e-01</leafValues></_>
        <_>
          <internalNodes>
            0 -1 236 1313599168 432272224 -1318748004 1157513927
            466058676 -1809301311 -1835855426 162616938</internalNodes>
          <leafValues>
            -3.0918237566947937e-01 2.0161713659763336e-01</leafValues></_>
        <_>
          <internalNodes>
            0 -1 276 1899755505 -1534085957 1576882520 -1137367056
            -1741403655 548219879 1247036737 -1646306292</internalNodes>
          <leafValues>
            -2.6364466547966003e-01 2.3912620544433594e-01</leafValues></_>
        <_>
          <internalNodes>
            0 -1 100 1739119473 -64288136 2080360069 -408294172
            562873837 -1092735066 879595756 -1987361569</internalNodes>
          <leafValues>
            -2.1574649214744568e-01 2.9499226808547974e-01</leafValues></_>
        <_>
          <internalNodes>
            0 -1 53 -362831221 -625209601 184481083 -1967083579
            -172532396 2145677239 568383286 -297271297</internalNodes>
          <leafValues>
            -2.4017648398876190e-01 2.7976387739181519e-01</leafValues></_>
        <_>
          <internalNodes>
            0 -1 241 853086872 1201939603 -586522105 242165282 742617912
            -144430870 243041826 25862</internalNodes>
          <leafValues>
            -4.7049412131309509e-01 1.2864230573177338e-01</leafValues></_>
        <_>
          <internalNodes>
            0 -1 164 1984292044 525580866 1127728397 559237281
            1751526017 703170231 1509942711 785466636</internalNodes>
          <leafValues>
            -3.1228137016296387e-01 1.9707770645618439e-01</leafValues></_>
        <_>
          <internalNodes>
            0 -1 273 956342696 836466745 -1357434498 -1109397788
            1062277440 -1721426940 774474221 -160849900</internalNodes>
          <leafValues>
            -2.9145407676696777e-01 2.2093965113162994e-01</leafValues></_></weakClassifiers></_>
    <!-- stage 14 -->
    <_>
      <maxWeakCount>26</maxWeakCount>
      <stageThreshold>-1.5085425376892090e+00</stageThreshold>
      <weakClassifiers>
        <_>
          <internalNodes>
            0 -1 300 -551551045 -387999894 -1352288461 -706873379
            -1380979781 -894705691 -216287753 -537920021</internalNodes>
          <leafValues>
            -5.8588796854019165e-01 -1.4407381415367126e-01</leafValues></_>
        <_>
          <internalNodes>
            0 -1 177 112483353 495862777 -8863745 1999927630 -44288072
            -571839460 -1932859140 -12972466</internalNodes>
          <leafValues>
            -2.8206488490104675e-01 1.7330573499202728e-01</leafValues></_>
        <_>
          <internalNodes>
            0 -1 299 1955588867 672395571 264142113 -1058665868
            2062490130 163027861 1573867824 1221458618</internalNodes>
          <leafValues>
            -3.1955221295356750e-01 1.5635856986045837e-01</leafValues></_>
        <_>
          <internalNodes>
            0 -1 138 1887749664 437965701 -1208746613 2082797349
            10466469 -1694838807 1312245833 674621190</internalNodes>
          <leafValues>
            -3.1023713946342468e-01 1.5235549211502075e-01</leafValues></_>
        <_>
          <internalNodes>
            0 -1 197 1911522831 1852297190 -251700736 -1858208464
            1056957313 1114503928 -210907673 -171837702</internalNodes>
          <leafValues>
            -1.5574948489665985e-01 2.9685643315315247e-01</leafValues></_>
        <_>
          <internalNodes>
            0 -1 22 -254835029 1635495631 -1560875333 -1264124734
            2071047734 1277501023 2011414247 -110760241</internalNodes>
          <leafValues>
            -1.7756129801273346e-01 2.8999868035316467e-01</leafValues></_>
        <_>
          <internalNodes>
            0 -1 252 136324368 215775030 -1857234548 -343494211
            208556196 -1134787650 1976830332 83106928</internalNodes>
          <leafValues>
            -6.8787348270416260e-01 8.3629623055458069e-02</leafValues></_>
        <_>
          <internalNodes>
            0 -1 135 181346954 618070630 611494444 1826385780 1332248161
            2118980241 1144716922 1254473424</internalNodes>
          <leafValues>
            -4.1186094284057617e-01 1.0949173569679260e-01</leafValues></_>
        <_>
          <internalNodes>
            0 -1 109 1202035986 693432313 -805350593 -1346392139
            -983720527 486489495 225658104 -914367522</internalNodes>
          <leafValues>
            -2.0335908234119415e-01 2.6155424118041992e-01</leafValues></_>
        <_>
          <internalNodes>
            0 -1 239 -2113913743 168883144 -16039599 -1516531500
            1001140404 -474289443 250205693 -1918893156</internalNodes>
          <leafValues>
            -3.0617651343345642e-01 1.6944737732410431e-01</leafValues></_>
        <_>
          <internalNodes>
            0 -1 268 610942304 49176336 97202898 -182291756 242754918
            1284433109 1434936420 14823520</internalNodes>
          <leafValues>
            -5.5856496095657349e-01 9.0281128883361816e-02</leafValues></_>
        <_>
          <internalNodes>
            0 -1 82 2094592262 1028895031 -97452843 -1897393773
            1208157860 1950210581 1243052792 1315259392</internalNodes>
          <leafValues>
            -3.7749144434928894e-01 1.3359174132347107e-01</leafValues></_>
        <_>
          <internalNodes>
            0 -1 246 -725636478 -542517272 2096531252 -437651805
            -1691486333 510404595 199737063 -174091328</internalNodes>
          <leafValues>
            -2.0570391416549683e-01 2.6973944902420044e-01</leafValues></_>
        <_>
          <internalNodes>
            0 -1 204 -430468400 -1103462888 -1584848088 -1647407496
            2106594788 2111918892 750983451 24747834</internalNodes>
          <leafValues>
            -3.2277092337608337e-01 1.6668128967285156e-01</leafValues></_>
        <_>
          <internalNodes>
            0 -1 20 -966407622 1148278803 645039119 996676975
            -1144543047 -163960032 709831733 1219824674</internalNodes>
          <leafValues>
            -3.5533130168914795e-01 1.5275156497955322e-01</leafValues></_>
        <_>
          <internalNodes>
            0 -1 243 -226785377 -1653366883 -64686849 -559219018
            477922789 -545474626 -553878129 -571507529</internalNodes>
          <leafValues>
            -1.5494252741336823e-01 3.5991457104682922e-01</leafValues></_>
        <_>
          <internalNodes>
            0 -1 56 1713882959 806445602 -287933409 71721676 1980193460
            -655004677 2101629540 -1384984041</internalNodes>
          <leafValues>
            -2.9113599658012390e-01 2.0219467580318451e-01</leafValues></_>
        <_>
          <internalNodes>
            0 -1 306 580829857 1831487704 1550879061 1875631706
            -1988127890 1179550885 285732981 1375722580</internalNodes>
          <leafValues>
            -3.2218185067176819e-01 1.7416337132453918e-01</leafValues></_>
        <_>
          <internalNodes>
            0 -1 186 -426663413 -1060330623 218524434 -273356089
            1942721601 1020602006 -488848406 385332370</internalNodes>
          <leafValues>
            -2.4720159173011780e-01 2.2882588207721710e-01</leafValues></_>
        <_>
          <internalNodes>
            0 -1 153 1962786826 -1859988459 -440991693 911273808
            818639305 -1407977464 -1340656963 1401764423</internalNodes>
          <leafValues>
            -2.9572039842605591e-01 1.9340096414089203e-01</leafValues></_>
        <_>
          <internalNodes>
            0 -1 155 1553106552 1964513620 1045910108 -1972242628
            -1931714596 1481182681 -1174374012 750368672</internalNodes>
          <leafValues>
            -3.4189844131469727e-01 1.6649241745471954e-01</leafValues></_>
        <_>
          <internalNodes>
            0 -1 173 -457987458 -214057164 -1351076813 -1405798530
            2012236977 1836375542 -277487779 -388948422</internalNodes>
          <leafValues>
            -2.2950616478919983e-01 2.5496530532836914e-01</leafValues></_>
        <_>
          <internalNodes>
            0 -1 292 77823016 -2130767446 -1685336207 -395398113
            2001945571 49807783 -669825777 1155647776</internalNodes>
          <leafValues>
            -4.1968494653701782e-01 1.3843028247356415e-01</leafValues></_>
        <_>
          <internalNodes>
            0 -1 247 -213985550 -778323433 -39342949 -808452238
            -291876176 -1076502692 443926426 -121766665</internalNodes>
          <leafValues>
            -1.7951802909374237e-01 3.3643639087677002e-01</leafValues></_>
        <_>
          <internalNodes>
            0 -1 176 516819232 671892012 -1756597380 49327458 135384119
            69016313 1898670624 275182210</internalNodes>
          <leafValues>
            -5.6296777725219727e-01 1.0310313850641251e-01</leafValues></_>
        <_>
          <internalNodes>
            0 -1 212 682519648 -1281377518 1284795934 1076670506 7996628
            580531021 1881286016 623105659</internalNodes>
          <leafValues>
            -4.0547662973403931e-01 1.3877496123313904e-01</leafValues></_></weakClassifiers></_></stages>
  <features>
    <_>
      <rect>
        0 0 1 2</rect></_>
    <_>
      <rect>
        0 0 2 4</rect></_>
    <_>
      <rect>
        0 0 2 6</rect></_>
    <_>
      <rect>
        0 0 3 3</rect></_>
    <_>
      <rect>
        0 0 3 4</rect></_>
    <_>
      <rect>
        0 0 4 2</rect></_>
    <_>
      <rect>
        0 0 4 4</rect></_>
    <_>
      <rect>
        0 0 4 6</rect></_>
    <_>
      <rect>
        0 0 5 10</rect></_>
    <_>
      <rect>
        0 0 7 7</rect></_>
    <_>
      <rect>
        0 0 8 11</rect></_>
    <_>
      <rect>
        0 0 9 5</rect></_>
    <_>
      <rect>
        0 0 9 12</rect></_>
    <_>
      <rect>
        0 1 1 3</rect></_>
    <_>
      <rect>
        0 1 3 3</rect></_>
    <_>
      <rect>
        0 1 3 5</rect></_>
    <_>
      <rect>
        0 1 4 8</rect></_>
    <_>
      <rect>
        0 1 5 13</rect></_>
    <_>
      <rect>
        0 1 6 8</rect></_>
    <_>
      <rect>
        0 2 3 3</rect></_>
    <_>
      <rect>
        0 2 4 12</rect></_>
    <_>
      <rect>
        0 3 1 2</rect></_>
    <_>
      <rect>
        0 3 1 4</rect></_>
    <_>
      <rect>
        0 3 3 6</rect></_>
    <_>
      <rect>
        0 3 4 11</rect></_>
    <_>
      <rect>
        0 3 5 2</rect></_>
    <_>
      <rect>
        0 3 5 8</rect></_>
    <_>
      <rect>
        0 3 7 8</rect></_>
    <_>
      <rect>
        0 4 1 2</rect></_>
    <_>
      <rect>
        0 4 1 3</rect></_>
    <_>
      <rect>
        0 4 4 12</rect></_>
    <_>
      <rect>
        0 4 5 12</rect></_>
    <_>
      <rect>
        0 4 6 5</rect></_>
    <_>
      <rect>
        0 4 10 10</rect></_>
    <_>
      <rect>
        0 5 2 4</rect></_>
    <_>
      <rect>
        0 6 9 8</rect></_>
    <_>
      <rect>
        0 7 7 9</rect></_>
    <_>
      <rect>
        0 9 1 2</rect></_>
    <_>
      <rect>
        0 9 2 2</rect></_>
    <_>
      <rect>
        0 10 1 1</rect></_>
    <_>
      <rect>
        0 10 2 2</rect></_>
    <_>
      <rect>
        0 10 3 3</rect></_>
    <_>
      <rect>
        0 11 2 4</rect></_>
    <_>
      <rect>
        0 14 2 5</rect></_>
    <_>
      <rect>
        0 17 1 2</rect></_>
    <_>
      <rect>
        0 18 1 1</rect></_>
    <_>
      <rect>
        0 18 3 4</rect></_>
    <_>
      <rect>
        0 19 1 1</rect></_>
    <_>
      <rect>
        0 20 1 2</rect></_>
    <_>
      <rect>
        0 21 1 2</rect></_>
    <_>
      <rect>
        0 21 2 5</rect></_>
    <_>
      <rect>
        0 23 1 2</rect></_>
    <_>
      <rect>
        0 25 2 2</rect></_>
    <_>
      <rect>
        0 26 1 2</rect></_>
    <_>
      <rect>
        0 26 2 3</rect></_>
    <_>
      <rect>
        0 27 4 4</rect></_>
    <_>
      <rect>
        0 28 3 4</rect></_>
    <_>
      <rect>
        0 29 2 2</rect></_>
    <_>
      <rect>
        0 34 3 2</rect></_>
    <_>
      <rect>
        1 8 1 2</rect></_>
    <_>
      <rect>
        1 16 1 1</rect></_>
    <_>
      <rect>
        1 17 5 7</rect></_>
    <_>
      <rect>
        1 20 1 1</rect></_>
    <_>
      <rect>
        1 25 2 3</rect></_>
    <_>
      <rect>
        2 2 3 2</rect></_>
    <_>
      <rect>
        2 2 8 4</rect></_>
    <_>
      <rect>
        2 3 6 4</rect></_>
    <_>
      <rect>
        2 5 3 2</rect></_>
    <_>
      <rect>
        2 6 5 3</rect></_>
    <_>
      <rect>
        2 6 6 11</rect></_>
    <_>
      <rect>
        2 8 3 6</rect></_>
    <_>
      <rect>
        2 8 5 6</rect></_>
    <_>
      <rect>
        2 8 8 2</rect></_>
    <_>
      <rect>
        2 12 3 4</rect></_>
    <_>
      <rect>
        2 16 8 8</rect></_>
    <_>
      <rect>
        3 0 1 3</rect></_>
    <_>
      <rect>
        3 0 2 3</rect></_>
    <_>
      <rect>
        3 0 7 7</rect></_>
    <_>
      <rect>
        3 1 7 4</rect></_>
    <_>
      <rect>
        3 2 3 2</rect></_>
    <_>
      <rect>
        3 3 2 1</rect></_>
    <_>
      <rect>
        3 6 4 6</rect></_>
    <_>
      <rect>
        3 6 6 5</rect></_>
    <_>
      <rect>
        3 7 1 1</rect></_>
    <_>
      <rect>
        3 7 9 6</rect></_>
    <_>
      <rect>
        3 9 3 5</rect></_>
    <_>
      <rect>
        3 9 4 6</rect></_>
    <_>
      <rect>
        3 10 8 6</rect></_>
    <_>
      <rect>
        3 11 7 7</rect></_>
    <_>
      <rect>
        3 30 3 3</rect></_>
    <_>
      <rect>
        4 0 2 4</rect></_>
    <_>
      <rect>
        4 0 3 4</rect></_>
    <_>
      <rect>
        4 1 4 5</rect></_>
    <_>
      <rect>
        4 3 2 2</rect></_>
    <_>
      <rect>
        4 3 6 6</rect></_>
    <_>
      <rect>
        4 4 1 1</rect></_>
    <_>
      <rect>
        4 6 1 1</rect></_>
    <_>
      <rect>
        4 6 1 2</rect></_>
    <_>
      <rect>
        4 7 8 2</rect></_>
    <_>
      <rect>
        4 12 3 7</rect></_>
    <_>
      <rect>
        4 14 2 3</rect></_>
    <_>
      <rect>
        4 19 3 5</rect></_>
    <_>
      <rect>
        4 23 4 5</rect></_>
    <_>
      <rect>
        4 37 1 1</rect></_>
    <_>
      <rect>
        4 37 2 1</rect></_>
    <_>
      <rect>
        5 4 1 2</rect></_>
    <_>
      <rect>
        5 8 1 1</rect></_>
    <_>
      <rect>
        5 9 1 1</rect></_>
    <_>
      <rect>
        5 9 5 5</rect></_>
    <_>
      <rect>
        5 11 2 2</rect></_>
    <_>
      <rect>
        5 18 5 4</rect></_>
    <_>
      <rect>
        5 19 2 3</rect></_>
    <_>
      <rect>
        5 21 1 1</rect></_>
    <_>
      <rect>
        5 21 2 2</rect></_>
    <_>
      <rect>
        5 28 2 3</rect></_>
    <_>
      <rect>
        5 31 1 3</rect></_>
    <_>
      <rect>
        6 0 8 7</rect></_>
    <_>
      <rect>
        6 1 3 4</rect></_>
    <_>
      <rect>
        6 3 8 8</rect></_>
    <_>
      <rect>
        6 4 1 2</rect></_>
    <_>
      <rect>
        6 5 4 3</rect></_>
    <_>
      <rect>
        6 9 2 4</rect></_>
    <_>
      <rect>
        6 10 8 9</rect></_>
    <_>
      <rect>
